{"numInput":10,"numHidden":64,"numOutput":2,"inputWeights":{"rows":64,"cols":10,"data":[[-0.43143266955873494,-0.08633768360040422,0.4411675909055866,-0.21304177556919307,0.9943549034230258,0.38868507458864043,-0.6778657900777898,-0.5657845888280894,-0.011004366094717607,-0.6941941960353986],[-0.4322032772130978,0.2337519808565475,-0.31039390657884564,-0.49405144382154936,-0.4999262052532865,0.37241029649987206,-0.6629725389277277,-0.5560141977974082,0.0692642368583126,0.8418145200762707],[-0.8141860971012083,0.7992243539680507,-0.8129712844490222,0.7814836962780376,-1.093955452479619,0.5168916752376331,-0.3242858727439559,0.07864924523609075,0.0945233794946358,-0.9063130939333558],[-0.32633146000773167,0.9066217168824725,-0.12043645956577273,1.0126113489870288,0.012919048362698117,0.8116211499312146,-0.26929966106608094,0.6145495765019278,0.5426961843958981,-0.5468929374275283],[0.7085939309264188,-0.020462849220824458,0.4117966470689054,-0.7089296067577127,-0.49681685453430946,-0.46213474067943583,-0.5763557942800852,0.8600229168058547,0.47222790486109645,0.16859920119553398],[-0.5057704205965019,-0.8348528459900812,-1.1512090458519713,-0.4732277354424777,0.3401040014758326,-0.7406552352507763,0.04521493618907621,0.38088740359446543,1.2165846459787184,-0.6222047650270861],[0.6363214301392294,0.1582421622105734,0.8278492688513941,1.0088375487709114,0.5615530478229036,-0.9181219773665833,0.41546863123464745,-0.16991243643728937,0.9329388181979851,-0.6217212187582404],[-0.388037374201638,0.4868733995701125,-0.6609722615433318,-0.4446172060513967,0.9160943049584939,-0.6528824523087673,-0.9249314690224388,-0.27581159568159824,-0.4560903838231028,-0.6985608762053067],[0.5610206574052109,0.3822774604136391,0.6466359510574697,-0.8837059974117594,-0.4270684266344771,0.5982465596483202,-0.5084900529815682,-0.16745029822224775,-0.36662312087345533,0.049059755745902135],[0.8261374127363927,0.26279155960105777,-0.2638341690882665,0.7067688536565143,0.5787403878308266,0.7672974247980895,-0.6039432972984633,0.8104347302764936,0.886843872447095,0.822981731454948],[0.3427068606323655,-0.12698001767907294,0.1774002491519217,0.3819623298546659,-0.034437714888093225,-0.12878853545648772,-0.9530833833963299,-0.535801068473171,0.5912827209622552,-0.4972085466884934],[-0.4938557779828515,-0.22876673440441603,-0.7365546108470554,-0.68150971120847,-0.005561392533181914,-0.3797588054038176,0.5552763849214162,0.645553068153212,-0.5329984009538256,-0.11049354135473327],[0.7667672266184972,-0.7723337161093655,-0.02884869623246957,-0.28709884193042495,0.23605689515441394,-0.9074591646495477,0.23619292251185683,-0.11733790150385799,0.06416118457886835,0.7121685640166987],[0.3793991932171532,0.32740701980930825,-0.5026866664835724,-0.5598508680896841,0.5638026293423907,-0.8781098069197757,-0.9338368895318656,-0.41749483402410126,-0.8064007687754832,0.4825962873162302],[0.8180527434978766,0.5452866594415201,-0.8931560404079768,0.050168247773009884,0.5091196347743178,0.5205938297799241,-0.23873957558797626,-0.5612131417397423,0.094835958962873,0.968882932747232],[0.8955119553213507,0.3691056336885344,0.47419993121526116,0.960542732404833,-0.5501427478543335,-0.12090132679845784,-0.6012005450225485,0.17611417802738866,0.6969463251091026,-0.6498895649552433],[-0.9537204206342612,-0.9601515489015514,-0.6168628573331973,0.07615852243005691,-0.09312512803163377,-0.906175242781303,-0.21457527289160894,0.07563479674417165,0.3144514233317775,0.7454321416230534],[-0.14011060027684355,-0.3601878927828213,-0.3850078642027804,-0.7793881622561204,0.15702938111315556,-0.628060968009561,-0.06874898695508622,-0.8760081581599153,0.40950403585072864,-0.35297020007418767],[-0.6374613514948114,-0.5683448806816741,0.14997559877819902,0.7359824920224723,-0.7786663803034611,-0.17151850207749572,-0.6085736268453826,-0.41174901173450146,-0.666527136092003,-0.9706027485742413],[-0.7738917694609109,-0.2551673790860988,-0.4431364484759252,-0.9357822354394337,-0.7869073082546268,0.39208151108865263,-0.15810225671385397,-0.7184424512573556,0.21174730674862768,0.736631512193533],[0.7814447828396202,0.9280513711691433,0.8814571004655282,0.5981652518633421,-0.7910402970401006,0.3563160755781818,-0.028378840134352806,0.4517606835932265,0.8445490808959093,-0.012744479978121146],[0.7072422669370771,-0.30449868918631134,0.4466857050682107,-0.15781940953438445,-0.46796961328377157,0.782969676252595,0.2412454015697402,0.9889991762441522,0.9126584537048424,-0.5894302378562306],[-0.25621397405263235,-0.008858962655801765,-0.144024666447177,-0.6012632795639047,0.07376541984661861,0.18064603332502813,-0.7079847409083101,0.5613541980131048,0.09078929439040755,0.7001556254692226],[0.5099582380864143,0.8843345187339092,-0.038788807226589374,0.9921301559903251,0.2487080126837206,-0.12161879144730971,0.46664558072087664,-0.11560346002482899,-0.2813835612015459,0.6895689626927431],[-0.30236629256004754,0.39048777775643023,0.2784608994428761,-0.5004335976253607,0.40689824938244534,0.6691513784881595,0.608649098000255,0.270926432050604,0.9818960911379037,-0.6684988434418242],[-0.46698775751103416,-0.05721908746189251,-0.34835492531820467,-0.9133270899694759,-0.45681361018541267,-0.4628561290423948,-0.5820570702345977,0.13723862978202608,-0.3740417589522332,0.29372366410869594],[-0.7355032436460949,0.47029270582710697,-0.2802333510351088,-0.5038011008420957,-0.5753345336925716,-0.6342935487436444,0.634813412612305,-0.23983140993629035,-0.27013750681397725,0.498540317306409],[0.19072642680645055,0.16788225994151587,-0.9901022104675253,-0.31165386539025913,-0.5506017030412513,0.9292989438544724,0.904659069147637,0.7305169619581524,-0.1389581931728479,0.5928014714088125],[-0.11111745657022105,-0.25316303880802965,1.1236198951820116,-0.01666955789583179,-0.37603211294983646,0.27321206984409796,0.689555879826641,-0.21584375020835392,0.7005830005001245,-0.3266495101569814],[-0.3813973578966679,-0.8575583374284431,0.46652512502962873,-0.07566851522785482,-0.5629713621604829,-0.7176273943340374,-0.16141090947892411,-0.9819705591267276,-0.38346625096127723,-0.4598934421276495],[-0.7713159843638774,-0.9188098120453332,-0.6580201683087437,-0.6963215278730671,0.4121856733653549,0.4165258021715249,-0.13838592855090887,0.28208327406202477,-0.759143094025982,-0.27867194503934384],[-0.5177461775341501,-0.2300645358267725,-0.33195660896493073,-0.8103808241998053,-0.7306457936776508,0.18237600490337696,0.8475870449591641,0.3741557412856068,0.09033639336842636,0.8760715586082624],[-0.26348399394491784,0.7359754440505634,0.3368638379814892,0.6070413404096124,0.2620405617969597,-0.6950199488440562,-0.4437462600373144,-0.5495593173424642,-0.27613662971698294,0.8790402716741476],[-0.04803866666232176,0.21545843566951217,-0.6705664226643929,0.4086624352611951,-0.627547286620751,0.9401380743781379,-0.37876464104588686,0.5917179011787238,0.41756169292268325,0.6484338313398772],[-0.6896314842466968,-0.802020221400955,-0.3862738292212888,-0.968206502533025,-0.9444667867027006,-0.8198782341508465,-0.8294907483046924,-0.2023081643904314,-0.0022406300714762134,-0.18867474420011335],[-0.908466103212395,-0.25824973782286814,-0.6967722942499174,0.39695004140156465,-0.4162867047102966,-0.8064786782981288,-0.30491100737725885,0.16996664486128926,-0.9052182553050137,-0.9821059318992758],[-0.9662836350219631,-0.20131945033905752,-0.6579976342669713,-0.53095341582564,0.6198530863881797,-0.034570359673798984,-0.3341348967083478,-0.8464579130228413,0.012018572801938856,0.20529732968441533],[0.8421325548345914,0.2328013147590527,0.8226884076157531,0.983735973119128,0.05833912833336807,0.8359738636618897,-0.04034878001440534,-0.7745529458542715,-1.2686024776379838,0.3642844485082459],[-0.6115882879372341,-0.5211442357121189,-0.3306789616196474,0.7315869682209558,-0.22121502519186947,-0.7685188886318499,-0.3420036160649027,-0.6372437555819442,-1.0005673559269908,0.2974240910779708],[0.3659329122335309,-0.016262013216045562,0.6409692270411903,0.5408145649963269,-0.6489687776942686,-0.3674079197760786,0.707853806884832,-0.4999732990349814,-0.17326741434789855,0.9137576057753539],[0.25355166890925895,0.13744107725993868,-0.08563968386765977,0.3094018302242052,0.6683717287187337,-0.9302396490285244,-0.8715042128640796,0.9156037640083334,0.1297902850661606,-0.24517487247856054],[-0.7308624457309999,0.5347696512923386,-0.8250015168784609,0.00999694709122053,-0.5804750776726991,-0.8847113617524375,0.5437287870631793,0.5107730212687474,-1.0414267518583906,-0.5521213186318955],[0.8372652371598335,0.8808992566027816,0.8431531019317614,-0.5155213434746317,0.570508265199544,0.9635977027386845,0.783512414445206,0.9660963091617706,0.3803272477791882,0.17761022099851703],[0.8209064125563726,0.29226264650537725,0.8869928800252465,-0.8496150004537828,0.6093824519766222,0.42584400019487817,-0.8690229844155313,-0.5993528015229672,0.8963926805893794,-0.05886356751569908],[0.608366343511309,0.6854265758890975,0.20441835318479473,1.0010941367878012,-0.47019877758128453,0.31927606994796637,0.27455625638309444,-0.16265847331334093,0.41203782468703043,0.7160325526838731],[-0.46943431793870477,0.9621285764495044,-0.15746513386728753,0.35565981392861096,-0.4539812186558715,0.49080825657414556,0.3818778286502538,0.6590677768701517,-0.9573461960540202,0.5757060876916188],[-0.006548456720583951,-0.1455932325244345,0.48612047919632306,0.2521627830303081,0.02358309143905865,-0.4537353584999501,-0.5476848521715362,-0.5695126992558789,-0.523246766271312,-0.0008771715727688614],[0.19238724096136112,0.04933937593257187,0.1462807711515064,-0.43162579398982864,0.9784697422865464,-0.028430574255248635,0.12649270961908984,-0.5898037942579863,0.12300260663955492,0.9539911275864283],[0.6452360864756183,-0.2970484542306267,-0.029538475975249223,0.3273676581833625,0.9604539436908015,0.4696302791050758,0.817722939362951,-0.36580405475566496,0.8025901422015557,0.2093225775180671],[0.5361946831638019,0.33543173481664057,0.8311122608280713,0.40271655342632784,-0.07680468730948249,-0.1930366681006245,0.9248696692171022,0.7019432752881596,-0.23245665466383844,0.47473974022411863],[0.4284708109614667,0.6452189799266133,-0.22744502241873715,0.5849981930803086,0.7439387477337808,-0.05568169023763229,-0.8099053887129911,-0.8000062849781733,0.529983617693867,0.8255508015424885],[-0.07020928032380153,0.04160314691304326,1.0768748796295449,-0.7297952090585434,0.9159691410260499,-0.3539513510565903,-0.30588798958251584,0.8854628137631247,0.11030290879360655,-0.5735861825161401],[0.9118464535300115,-0.3506687075879231,0.42658402899903397,-0.00590385151079197,0.691435911677914,0.6744399088757755,0.032017838942608054,-0.6956585237939967,-0.665163985912642,-0.004521351682609016],[0.15318840416733603,-0.6860307322039099,-0.6203028790467974,0.9612403169470839,0.7146860137192923,0.03554784445037857,-0.22125806759489425,0.420512090908672,0.35734900395310154,0.05361323383313001],[0.7813714437900957,0.3989732670106045,0.7276564780228341,-0.7602486907298137,-0.5765549237951934,0.44412649355726,0.7903150929546535,-0.18327080509290755,1.02394566939992,-0.3308964093478116],[0.3977771056584921,0.05675787805229887,0.6175067401784126,0.3666831953980292,0.8142744309262939,0.585321624778566,-0.17968922684121347,0.8515695608073192,-0.11300749922402192,-0.3312592716505342],[-0.23898558455787886,0.7155156284244392,0.7244131583663393,-0.5015716125934258,0.8045493145601799,0.33928565090035673,1.0165984737184848,0.8994383184106319,-0.07844332608592601,-0.7851212427196262],[0.46703393724828624,0.797832577212695,-0.45457726602670906,0.08878398075722364,0.24000464222980064,-0.08048588241971007,0.7824119987761516,-0.22810047095482303,0.7430619050003229,0.8603641692115322],[-0.10170176970713828,-0.5660919351469464,-0.19623081574619552,-0.2196980623456154,-0.5819909047004358,-0.2626143035097996,0.6415377815696683,0.7236415269472055,-0.8315431449829057,0.47389662855177417],[0.7491356761265237,-0.7789638357196778,-1.0498234814733998,0.15159319131237053,0.8185205337285395,0.8603219820980395,0.057797286948488874,0.8793363144855602,-0.45498979099756287,-0.8624161416448202],[-0.3194423664866267,0.23449113816516842,0.3599849786278489,-0.913288774121619,-0.6065121523478558,-0.15474142472265248,0.5570554742630882,-0.2834492360242915,0.5502163210057206,0.6763837488847123],[0.6827450104228056,0.7968279423583676,0.05737705779093631,0.856043596880066,-0.20044459108710022,-0.9662892228049683,0.5069042630125608,-0.05828996532958097,-0.00925886730073124,-0.7271890290685348],[0.8594893657022361,-0.23802210088929715,0.2690239624616019,-0.9751464874216779,-0.6096022053698779,-0.12568240042265633,-0.6386869316319752,0.6295108032733207,0.9465404533338128,-0.5667305409460036],[-0.8349463947431813,0.1561174185253616,0.45058078032281207,-0.0347864234983728,-0.958193117145886,0.28046495425803675,-0.4910409056561062,-0.5685644576285003,0.6065454146491979,-0.5110863422446035]]},"hiddenWeights":{"rows":2,"cols":64,"data":[[0.5406216173166626,-0.15103023795583517,-1.1064598914304649,-0.09201372046485642,0.7710702906517334,-1.0371082334821393,0.1555677999990215,0.39079764427930763,-0.12478730062835904,-0.8556681729753574,-0.2058411036722442,0.563817689147908,-0.39812754475492074,-0.8994004430854635,-0.5142877187787525,0.8010341812762116,0.7586634847761914,0.7922948335270861,0.45687104339911233,0.22575902350760596,-0.7923189526208534,0.2535731237540279,-0.5363310396734107,0.1335822175932078,-0.9584905107612592,0.39706802066351105,-0.7072805840791757,-0.18602911389161872,0.4110020584460684,-0.49853691639222253,-0.4572679220079051,0.713551863065586,0.1714330189307543,-0.2808914027768228,0.6724317528959648,0.719322380677807,-0.3921276542922048,0.9336140996075115,-0.5300581755972007,0.2515521791176015,0.2916308809155195,0.6361282901884655,0.474319931248504,-0.6783529958136133,-0.8606103268586874,0.9028129786298215,0.9523963025223526,0.486477815857681,0.30548236394878275,-0.06179673216812693,0.2553531479688304,0.6926295197899285,0.8526374195761185,0.3875834746150048,-0.706929739350077,-0.12049714231240798,-0.22924227225895946,0.6770747337857826,0.9015994661286592,-0.9980161517518105,0.24201466197376423,0.30600264410170797,-0.12649398593368025,0.38308047589104044],[0.3267416891177892,-0.853597459496058,-0.03574208505900504,0.9958045449271488,-0.38128355728249275,0.14978604827940384,0.24092826109002338,0.6764090272095908,-0.5843961655218686,-0.7570237901596474,-0.41144919576874067,-0.3960888234308295,0.4914085745513193,-0.16894235133700852,-0.33125946715169247,0.3228917142002143,0.6857191011947767,0.014373563640328206,0.8329996030789588,-0.46372930920752203,-0.1626205761096159,0.2176928647283694,-0.21611015293440983,0.4039913445713154,0.28457087080034577,0.8669475947887392,-0.8281532001649956,-0.03413291055695354,-0.4528527627524134,0.27628955432464314,-0.8051781454132075,-0.21410686362882086,0.47938177790088954,-0.10570427652642335,1.0305183179241175,0.7764568696739591,0.38282525772193726,-0.6104162633992702,-0.5692462175305306,0.024610093560962165,-0.2507679876319748,0.05083073810670964,-0.21296116312606939,-0.24201817723906385,0.06485646680373548,0.9230054783282878,-0.29321759170413575,-0.4331062042209465,-0.8452885855166812,-0.13211720052292,-0.5857819396759668,-0.26232307911890707,0.0858031676797014,-0.4013573169136518,0.28759076374184817,0.1557920286280461,0.8033141522500407,-0.19973847021511243,0.4602801707567758,-0.3167170693131593,-0.06777569712430703,0.26605446911293595,0.13451661187793768,-0.03135609362401423]]},"hiddenBias":{"rows":64,"cols":1,"data":[[-0.44188640539497737],[-0.4290963507472446],[1.012724357374082],[-0.1845935640162359],[-0.9614535491839153],[0.5040936045037135],[0.27968674748341993],[0.9198057763238436],[0.08818174540039685],[0.6372043573786365],[-0.004957413830610418],[-1.1454964089785433],[1.1699192523331017],[-0.8740750797364181],[-0.916226008450368],[-0.6132748995118236],[-0.5350667499618615],[-1.0804994194717172],[0.9154078837943788],[-0.27801670416937685],[0.019840979553457753],[0.5290409722784151],[-0.11280219516242676],[0.2866805861882577],[1.0110184013677104],[0.16663629508920186],[-0.3217799511246768],[-0.0983281150308664],[-0.49747947204623194],[0.1720115975862183],[-1.049337745671838],[0.36020038058949433],[-0.07500506171716093],[0.45968474398218945],[0.19590736665091935],[-0.5554359534118651],[0.5000686023536628],[-0.6795340851067243],[-0.06312097362469735],[-0.20482856914347694],[0.027083501399363632],[-0.6600994970980153],[0.7257170041807103],[0.731211139921541],[-0.13091161116706812],[-0.010089864449634523],[-0.47754759117842094],[0.13865657351345784],[0.7230585192670574],[0.4133283344878463],[0.5908821960786534],[-0.6894892089533505],[-0.04515364986130145],[-0.5075806385798595],[0.4586108398333736],[0.9658510839067846],[1.0154188571972789],[0.9280415757379272],[0.05143329354122799],[0.8413937276819234],[0.12488638887156046],[0.570615216999125],[-0.12350365230266],[-0.7988720298948725]]},"outputBias":{"rows":2,"cols":1,"data":[[-0.24350995973846165],[0.5477482449132619]]},"lr":0.1}