{"numInput":10,"numHidden":64,"numOutput":3,"inputWeights":{"rows":64,"cols":10,"data":[[2.72757401708957,0.3598359742319607,0.8272744529473102,-1.0989486996474975,2.0086015322054958,-0.5834154034413415,-0.3655240106666587,-1.3745659413068552,-0.15512926160927595,0.5040676715203453],[0.3288787737621032,0.24890452885948802,0.31837920518013113,1.141820988259546,-0.15012972403157868,0.9102370496301911,1.2122636429782794,1.4856043097674363,0.40659262578950495,0.05689940547352687],[0.979432608840712,1.6745193730259003,0.8775297426396445,1.449474534656567,0.5021542832041392,-0.12022857736000366,0.7404407293018158,-0.32524814404785235,0.6655213613191016,1.4323729145653787],[-0.2075757850456385,-0.7294856211311972,0.21192794258414865,-0.2936421801699462,-0.23552117911564965,-0.08131004098090192,-0.747350368655274,0.025728499140343718,-0.5762811012193557,-0.780383943326436],[11.921874093676578,-0.78744901650898,9.71710112978106,-2.375701265826364,7.123623731930732,-2.858379756135366,1.403526247554668,-3.6054487846360925,-4.235961585194548,-1.3975600623700877],[3.630276710349065,0.0020307809271302908,2.283143882043713,-0.23603836495609146,3.4246605559429484,-1.5306498522555245,-0.9412046652293746,-0.651113103152353,-0.09228244919677493,0.18319759844273523],[-0.5215070139236455,0.4479905187357018,-0.7584265728435592,-0.2172586247477492,0.06747251747730916,0.4079948930270688,-1.0799482818643205,-0.054969744978773674,-0.39682952092535423,-0.699321095776032],[-1.4032029102255785,-1.1683211491763161,-2.236649718187807,-0.004018176483160701,-0.38044309500556056,-0.150365669091827,0.46606375438762027,-0.2650978008670535,1.3011545921684315,-1.037828663632079],[6.27031693597685,-1.2086873303688233,4.874625939467792,-0.5836537970722767,3.0796261378152225,-0.9587214738588868,-0.7863203725158212,-1.288735980779868,-2.1509083485624974,-0.33049312005178116],[-4.772371944444818,0.012769091503306719,-3.3345243464697365,0.8732029392838342,-3.558713943724085,1.792944231212312,-0.5220699656591931,0.6834031424718825,1.668909780640864,0.42747024941792366],[-7.119851091715718,-0.6810565711636557,-6.191749774084746,0.5032078450246743,-2.9633387272274203,0.6304648667312981,-1.267654521700168,3.1411672962256634,3.3869528566327407,1.2140161300552033],[4.1947913400716335,0.5124671716725941,3.0733634917075703,-0.3212722632879897,2.1303918938854167,-0.1860586118344307,0.045576986692683764,-0.7474580229200877,-1.2701250606173837,-0.28457810822385604],[9.875442851981989,-0.16619329234353936,7.730582999061563,-0.5555877443414028,4.866500730741198,-2.2707359658529325,0.9865274687518688,-3.283282951096098,-3.964284720641631,-0.3541600650791357],[4.064638814035048,-0.6264562353587653,3.682625119281765,-0.3924485900661929,1.279340765152642,0.006802950674656202,-0.5109188597937784,-0.5327116223805969,-0.4690832059485094,0.6433954398957471],[6.600667850193647,-2.9484241214669042,3.3782312130334007,-1.2036658842569605,6.030160429107662,-2.2638243442014465,-2.396806666034675,-2.0495827491722416,2.6817943769882726,-2.140309443407376],[-0.11504819609725551,-0.8105919679975395,-0.4936010613651314,-0.26920292085958586,-1.0152116549271466,-1.53237592924563,-0.7472004708533779,-0.9417231291549559,-0.6033158386683561,-1.531310498934779],[-7.4797622030026805,3.8074196166703977,-4.602587682840935,0.09087864979487115,-7.7401826745539175,2.9888230780284,1.9206076378218273,2.1537171181984203,-2.486542902927102,3.6232023049827338],[-1.3043830244661452,0.7872052746927173,0.23307662616004335,0.9115762763017268,-0.13675360426312924,0.18828358321942726,1.1616588058937478,0.9634485232567684,0.5951380866373974,1.6666524602462254],[1.6073317621262966,-0.27627271550186017,1.5843611773538053,1.0155424176660355,1.3845394949826337,0.22246868971375872,0.6478731911071223,0.5618262561725056,-0.264269638626854,-0.3486014575827322],[1.7674185236241322,-0.20665512872215688,0.7718259175276986,-0.5298152061419419,0.4496744776349437,-0.30455159397205117,1.5242045555274437,-0.23167407232610063,-0.9326053642140527,0.06815304420463976],[0.7356655972993235,1.230991818798081,-0.30459675752347637,-0.5282943012106889,1.2254575379044639,0.6703290846711535,0.6801240856895695,-0.1346800624391161,1.270483901144362,1.0986193086858786],[-0.4655876231087125,1.4836373975663082,1.0322116189176715,-0.7611284664399164,-0.8946341794441889,0.324413941238787,0.5612482402254645,0.830138958240362,-1.437879525822036,-0.026525384807288745],[-0.019092534750119457,1.0918071581841235,-0.30799832689340456,0.46523438302108394,-0.07726689726640024,-0.1220497407486722,-0.14453473224492194,1.0203833254300445,1.3967522720574483,0.7332505363458669],[-0.1871831630118782,1.3060749485724743,0.3914721614771053,1.1286989358377395,0.8285092941227469,0.18690180699944975,1.6948734420761424,-0.025346465370654332,0.6806937486652244,-0.31106542334609416],[6.120233566669912,-0.9716198731946226,3.497850026537859,-1.2577542728086335,4.579648189549158,-1.1962840092366258,-1.951874756385351,-2.315562469834302,-0.4363052776486519,-1.6470353243245415],[-0.6138166813647309,-0.904118097561373,-0.7178682399247654,0.9645813609781576,0.18555259198117652,-0.3128715252412819,-0.5524649778316735,0.5710018563818157,1.0164377041310295,0.2655189532475362],[-3.3521787538746075,1.4125443146207775,-0.8733287384419893,-0.5426696376469521,-3.9240782640925924,0.8776785263175723,1.719518950191354,1.521520465936932,-1.1130389125078768,0.6911490917251185],[2.7474055644469653,-0.11755680237652016,1.953465259204878,-0.42221431283177097,3.8170831434366086,-0.503651393551755,-1.0045754932459303,-0.7170552294989521,0.0806436930079825,-0.7155140872965623],[-0.7284356978466046,-1.0844464124521187,-0.3501174547233042,-0.7076362540197376,-0.8127128402200845,-1.4452807149365507,-0.6030985285622036,-0.9938030284686382,-0.259758709144838,-0.37824602932387713],[2.8377958800906957,-0.28553381090507624,2.642342520687776,-0.8118792642517692,1.7108182040266917,-0.80654351163543,0.3382252679403977,0.2868838834176891,-0.2309607644395719,-0.2900843069412682],[-1.8891036602006872,-0.7570747173681155,-1.9896189645632505,-0.009182886760148449,-0.581797064691329,0.5226155869714906,-0.8749026512228826,0.6360452072439332,-0.043348837026526074,0.6792359919462261],[2.5014083163576823,-0.11734661851493232,2.298178906691428,-0.17298849836910782,0.46651793514065176,0.7759690726563284,1.4619922260065523,-0.8857136604731163,-0.6046252200696763,-0.4608000644171251],[-8.201366614872963,-0.025169478130797212,-7.171865016968426,2.3433959938265545,-4.3680620089573114,2.0496440817395736,-1.2789969144985813,2.7997646846722763,3.6809739593579187,0.6046833614749336],[0.4933468667585523,-1.3567302360172344,1.1899292286962937,0.4380696372459203,2.7537566483541793,0.3920948010691648,-1.2339485656644391,0.6162674206188178,1.0652004405102216,-0.6363043206973403],[-2.448878288705036,-0.6445327907048344,-2.7564928950342695,0.8561196174003266,-0.6057722281326111,0.4998042423817539,0.5140740672171533,0.20243147553917587,1.3214664647690393,-0.23084793677823215],[7.725561463712622,0.570788411265068,6.5411505971652755,-1.9892678345567654,3.867143125923954,-1.1842415797089998,0.025928941548193172,-1.730173475143438,-3.152888453739887,-0.7610783265231753],[-1.1285557820763343,-0.9329137096317305,-0.1640016564161747,-0.7716424297309373,-0.4752705828681123,-0.41567868098534544,-0.27989003179500477,-0.6066736628469542,0.55046294931876,-1.5590639298304951],[0.7048175907352661,-0.4617731124292772,0.9113338388273414,0.6711811788554741,0.008770117776732544,0.9157323003236937,1.1492898997322503,-0.4883349035304196,0.6166917538467583,0.9337235687887423],[-5.519936226095744,2.344748191150088,-3.1194392226533934,0.2450364053185108,-5.264767827779458,1.5796971130727075,1.8364809668136086,2.6199816871165047,-1.0986186971175302,0.4786143597101385],[0.006090931808960658,1.3432825425338824,1.0636267737864955,0.9117284958987524,0.5461713349904969,-0.2072872425735762,0.9786271151952919,0.45989171706930293,0.057781153463149056,1.0861376144810304],[0.876034519394331,1.102284737501446,0.29923639536055097,0.8863706034892868,-0.10790598462068654,-0.1818906714093386,0.23987014163873532,1.5353351190720514,0.21547934400211222,0.11356090241583086],[4.1505254194863115,-2.4183274471929526,2.2362789954285396,0.4814183125848423,3.390002280646239,-1.5763574530728193,-1.954105272344929,-0.560954613450713,1.3641696401227528,-1.4429458233851054],[5.036584238236899,-2.5057687073985657,2.944450535706016,-1.1750052825177313,5.9250027686863405,-0.5311674897902738,-2.1910204199177823,-2.2514222925719376,1.3046152832271445,-1.1992161810811364],[0.34897952569571034,0.8921074191414158,2.367057604844303,0.6594829349390476,0.4492602508453399,0.2116801815177858,0.4292217042668382,-0.6016253774381509,-0.9482189539940151,0.6375524348226937],[-3.1431575785004737,-0.664320611615655,-3.53255321207132,0.37494876694903395,-1.6481379171685915,0.7586914871218905,-0.16747979193938092,1.031849269880083,1.7124567955842858,0.1466348809524195],[-2.8036236398779706,-0.5354058355069424,-1.9223660002132508,-0.2438439398588449,-2.773523498094635,-0.19756979978733225,-0.1281925306811203,0.4341362731261516,1.1612632043493092,0.1880305111695532],[-4.45795182844048,2.76813772859894,-3.076969950549848,0.826578869424805,-5.9562675958759685,0.7533648026955148,2.2628975296338694,2.7461145884564897,-2.085487352315455,1.5572307873052187],[3.6430466291790884,0.6347620369670018,3.0773730913990263,-0.6883929624438998,1.7121488842481645,-1.0431062796888346,-0.9497821201392032,-1.9682375286301061,-0.4728849515820272,0.5804357060100319],[1.8252182081002895,-0.1032073546434942,2.2114484088090927,-1.0100890513580754,1.5045015965829007,0.024223377688394623,-0.08548815254815158,0.5442104824654628,-1.369511260030929,0.1323743506013526],[7.71679567831046,-3.2628005646801115,3.635715788230194,-0.42060670042548615,8.373214923894537,-2.823245430318126,-1.4494434547081854,-1.7217493546983134,1.4070763638053716,-2.4345956296752815],[0.2115503414327078,0.8638381036529154,0.40336368622042396,0.47859056913108905,-1.6830248680493602,0.97543026968379,0.12517273806919219,-0.38102411822000226,-2.0487396445484447,1.3530126649962124],[-0.8399429448743362,-1.1553621093627824,-0.7670727604613122,-0.7336878040789347,-0.9715692564571269,-0.5752229110837046,0.22161382919349687,-0.540538929738002,-0.7280050008818548,-0.352052459152106],[-0.6846212975585124,-0.22738501663325705,-0.020528220684843196,1.1019847414394306,-0.0884989014262179,0.9868285881410072,-0.5291264429594646,1.3536381718752923,-0.20131661300758952,0.4807681646963787],[-0.5051471899111948,0.3459198776066144,0.8915718240957126,-0.5023590007625186,0.7715718021796305,0.9020422906847174,0.7487636844563708,0.5719017510955599,0.8659650320326692,0.06801417162924342],[-0.5545575855415186,-0.6317883773089326,0.6239903151312121,-1.3763022987972355,-1.1069641561839842,-1.336554064885174,-1.0398790230122976,0.10288415560410594,0.07138173527962152,-0.7634390020404838],[0.5271089696279403,1.4724913415009002,-0.014103704986979935,0.0719557054994771,1.5541807904163418,-0.4559157646270306,1.1433870990557973,0.24153336008837922,0.0552373366241016,-0.47520920457801713],[0.48461949764142276,0.17562850131112714,0.33013416369902326,0.5659439814055572,-1.4582018370828989,0.2421984982640299,0.4702074596676953,0.17979212877675535,-0.7205870829085111,0.24370058120885665],[-1.4362788817088674,-0.21246676296782774,0.4359971832651107,0.8582721691406395,0.4818453970871448,1.127650767387626,1.2855158954640544,-0.19743512477545697,0.18782536565865804,0.6178473559425979],[0.35399541799020046,0.6687982129600042,0.11132253584020028,0.4836375521047703,-0.05449865654222685,1.1087697673891963,-0.23836376546750193,0.26878980606574693,1.7841569892911349,0.35045949072052524],[-1.0217755769755084,0.903580926066922,-1.394468127515453,-0.2956253934745877,-1.2842075843294487,0.11352860751574481,1.010749158450686,1.6360001961095771,-0.7704971826976047,1.6692805041567482],[-7.73106300144504,4.631713780921224,-4.829574908791277,1.1412870815727685,-9.006204176606781,2.2904083004905305,2.8379397861974804,1.9333087750894815,-3.5619929148849367,3.8604805095675196],[-0.6761857098829084,-0.8527833783757761,-0.95892633152495,-0.9154145138416965,-0.6799281781257578,-0.13987908726819961,-0.3004232633039248,-0.6710132927270482,0.31319029756706535,-0.7085225253287161],[-0.14952048235100593,0.1559958759007446,-0.7797315190932939,-0.018398095375322887,-1.031862847195381,-0.34402815149041543,-0.9509703529646445,-1.5378031095489586,-0.5077333545581064,-0.2991239997063904],[-1.1609447721588124,-0.7988529285730753,-0.9617688415035086,-0.2314963657924322,-0.18612744238374715,-0.372143192247539,-1.559110637189554,0.243067385843087,-1.0000683038721292,-0.7612523098381491]]},"hiddenWeights":{"rows":3,"cols":64,"data":[[-0.32982278978798557,-1.6911341666746764,-0.5176036734983818,0.030150066626268,3.9341523103565685,-0.1384091024782008,0.08324261043559165,-0.8064427219453202,1.070232645009664,-1.4040712649753386,-2.349253201229257,0.8469455471278863,3.204708413221917,0.4772707724663114,-2.315925268252591,0.9725135543261969,2.434155544825199,0.07508987460189478,0.28466565058317217,0.45049002902609736,-0.2404383725556828,0.7554871089091216,-1.1440791016127125,-0.936892861213237,-1.112439194893857,-1.5765678856765448,0.5096425908984931,-0.2085873326726243,-0.016979795242496678,0.627987259533315,-0.9498397367707586,0.5958351489341857,-3.328460447315759,-0.9061968538255782,-0.8312843539394409,2.363468389445582,-1.052316762699831,-1.5697883367928642,0.43621563233338856,-0.4604260350930476,-0.03545852250676845,-1.141328744246059,-1.8754920314246624,0.5582566608107393,-1.6972089320909571,-1.3321602252093996,1.0293403081422536,0.4912955022946326,0.41366896252047014,-2.8728951783242676,0.7428127660914207,-0.44504388672575856,-0.9853287393909979,-1.574456549900454,-0.013633988718586686,-0.183415061869232,0.39226487157503975,-0.5120126358685214,-0.8443988859937123,0.3594351189264689,2.83759072029764,-0.4771201628567737,0.7305058128687874,-0.14513525559053833],[-1.2341490851073658,0.6175555409026883,-0.0481989953976074,-0.468722533493461,-3.183185360160305,-1.4288098267422007,-0.1708425717266936,0.3272643396397663,-2.043775317902481,1.1027269084819944,1.784464013587888,-1.5324652076494878,-2.040970807907467,-1.4690693195922873,-1.7293459614706965,-0.7672286737122963,1.717185793455056,0.21312655549227358,0.014097104063737405,-0.4449963338840515,0.2048119803667254,0.10539242039535605,0.5572811574376124,0.0480440908251821,-2.2114167677824703,0.7614766370464793,0.9053445413600067,-1.1847288903841382,-0.3906354733780264,-0.49803051035669366,-0.0781089316309995,-0.37087661435800245,1.1099391143331625,-0.7696293918646158,0.6140540026146024,-1.7806912360709455,-0.7898927724608924,-0.6854651460121256,1.7234453945435069,0.5972526767193935,0.7393936377605832,-1.3241879544667396,-1.5525168300686043,0.28068614204513875,0.1600546864938267,0.14424550233674258,1.277124249785028,-1.3067872271048064,-0.49685783724386273,-2.017253082126166,0.22983625151160536,-0.8410375221109629,-0.027897411100233537,-0.021584342415484514,-0.7815247872395477,0.14025019380094234,-0.3216990940013411,0.5637172545240737,0.24472905678985987,1.0089517630831752,1.1259439310310508,-0.016156984555791672,-0.023131815397209533,-0.4822773115548145],[0.22494326264965983,-0.10019124212750481,-1.4799493658519918,-0.7665791713192032,2.431579742933436,1.2032908555934356,-0.1679534343645449,-0.4936893644600079,1.356289200573462,-1.458212293943095,-1.2591183206511436,-0.05815747895306487,1.6066866004537634,0.6527821557671527,0.6069047098726414,0.479139812987384,-1.8823508625067014,-1.3617462949248942,0.45982130568952495,0.18225565797682633,0.14613335040673858,-0.6834512168356164,-0.4204008417703504,-1.1473182042016867,1.1671751800272088,0.006199618626417165,-1.0264484137831957,1.1439547117086173,0.4287077853314148,1.0188283804342684,-1.2416927632851258,0.40225515064950257,-1.8343749827926146,0.26000796828941314,-0.8779304617956806,0.5691105941384232,-0.6621512791576946,-0.09654439753609295,-2.6643829790536038,0.15886614127709156,-0.019684684878845806,0.6348269547326677,0.4489223035855434,0.2529485533981576,-1.2918793662492154,-1.3725065909913359,-1.8138858426306321,0.7359062919646551,0.6576088701867984,0.9559326819498487,-1.02380763251007,-1.0127547088335667,-1.4074064608969377,0.09943868790599557,-0.7151240281037343,0.22133521562804032,-0.7982823488113736,-1.403922597753686,0.2909361332663122,-0.6510467090771109,-2.209704643201784,-0.5020106399545208,0.34459810794024437,0.7813495497927958]]},"hiddenBias":{"rows":64,"cols":1,"data":[[-1.2146535892101527],[1.1970970790606115],[1.25461604469921],[-1.3892592146295517],[-6.780143031690135],[-2.8835250523319105],[-1.4382428333245318],[0.344483785942773],[-2.3625398983238024],[2.3112261551451843],[4.034511175086874],[-2.103613711928926],[-5.69310278853003],[-2.287830567673712],[-4.209944408730403],[-0.885477041507733],[5.855814899093616],[1.7587290990481106],[0.3218430934863299],[0.16046630784770907],[1.4850712322291963],[-0.2616298762806832],[0.8400817634653444],[1.2699771055053457],[-3.444150787750134],[1.6932090926614944],[1.9637834618557057],[-2.497710487614816],[-0.9470563195239219],[-1.234245547382089],[-0.03617823303821362],[-0.7904328368731132],[4.365842313925338],[-1.7542859364724388],[0.22973509204019832],[-4.09026355829465],[-1.5862190768324838],[1.0619765417332583],[3.880425281193105],[1.3951179374572564],[2.238021866180197],[-2.400777476472451],[-3.724679340757859],[1.3755692063173968],[1.176481989446129],[1.3650622141079014],[3.2951630164367622],[-1.1106431004386965],[-0.18527483670037223],[-6.439292983998581],[0.06972903521007247],[-1.2425760525957037],[1.4557205037310688],[1.0763494156661204],[-0.8893546069823307],[1.9057613147454107],[-0.7928879763447155],[2.248327871354369],[0.18289198408319174],[1.185884610390631],[6.14536968133204],[-0.5761295637184424],[-0.6584335713015327],[-1.6070112475972858]]},"outputBias":{"rows":3,"cols":1,"data":[[-1.39408220725958],[0.3626635814453305],[-0.38932896940232914]]},"lr":1}