{"inputWeights":{"rows":64,"cols":10,"data":[[2.887792448119783,-0.6441554292595495,2.119203619298253,0.8033118630534484,3.0568121059687074,-1.7817995041308188,-3.8367800438329467,-0.3091642151525415,-2.2866868302295926,-0.8131140900425655],[6.021694625847131,1.0325225547770132,4.816889176207229,-0.6321371014016421,2.8384081952886087,-0.7873530919672791,-3.2785197378474686,0.6052905864289997,-4.511860477704981,0.8472945304298627],[-0.8264043409546933,0.33646837464749085,0.07295193920337126,0.008381064005289002,-0.966478145475253,0.18687923631537556,0.7025741855799791,1.0631179862227529,-0.8145606504154247,-0.45405605587627457],[-1.5871348727584667,-0.3921563210627634,-3.2473493292457145,0.7416810188381234,-1.3623796122022613,0.7088589936415582,-0.10396907586272798,0.3686044962940637,0.6593018544283322,-0.16393790825891008],[2.029039171491909,0.005334910834322944,2.3096025494928623,0.9372536932778363,1.3339394869754326,-0.9084638176763657,-0.9862999908205962,0.4440070720202517,-0.723858856338358,0.11356838316776365],[1.2081208548860842,-1.570732597110165,2.0408458541806858,0.2654345776522566,0.9870494179359323,0.006199695897962321,-1.8140490706328976,-0.0932269584332044,-1.543551785114094,-0.7307343607759642],[-3.142647688823821,0.22882000068925798,-2.0383873253050036,0.3079813606808024,-1.8117390776522182,-0.04646483473446291,2.396758615161591,-0.2338357280344136,2.4445659240126316,-0.5051844721794732],[-0.6337854415922333,0.48840131648857915,0.7298295179906602,0.39519613309649937,1.4429818226772493,0.7802894919030663,0.31956229633051936,0.7596303053958406,-0.16905702579120654,0.3236893769270817],[-1.7380900389536087,0.17517767631468906,-1.6785545504604245,1.3016930695719513,-1.6605458529654307,-0.40756173767164194,-0.6421908013528937,-0.7096346460981848,-0.09915535658455986,-0.7419648764522189],[-3.9547261972840864,0.2931615866428061,-1.3866227103742104,-0.7381694406942891,-1.883551178981776,1.4898480219600256,2.6174260204897113,1.0541085044696568,2.4378149763006953,1.1052581641084511],[-4.331021720712607,0.34134827571378434,-3.27804312682537,0.551436507166944,-1.8387655577213229,0.6241747561304319,2.695631585432595,-0.2528795593621879,3.6405439882976283,-0.38991078646258515],[-4.631291076746893,1.8095106856603287,-0.5413337149372902,-1.4342230755946686,-4.454633829618188,2.4077687916109918,4.014933984619959,1.6948260085280111,2.627797892800431,2.020087877506301],[-3.9546843559726415,0.8762347892533978,-1.1981956490574501,-0.14376597648393147,-4.371013193210798,1.3987129655838524,3.8056065366771414,-0.08134562530989028,3.042670734840816,1.4423356269074716],[-0.7447786639256185,0.17257651920998973,0.07999121141191866,-1.0092488887276787,-0.09905289550312844,-0.44881319139850323,-0.22861439906946526,-0.17903164243010614,0.2521119402557785,-0.511396317283754],[-4.9842544086062395,-0.6451327983855898,-4.658805530823419,-0.22217074630683561,-3.0371012407619347,0.7204133548228768,3.79420497536936,0.388510179480451,4.236057897084921,-1.2970520939730892],[3.968341112068985,0.4316589168295585,3.2618536058834753,0.767918278758493,2.1844053703091184,-1.174520221225348,-2.1997514717756355,0.8670862675425501,-2.925195997359166,-0.1803675813512371],[0.19373974820367773,1.2236248832960888,1.2908434650211915,-0.9462203747591919,1.4808179759086695,0.7146277647749762,0.08862800644090674,0.02655590281303001,0.88840948807642,-0.7181125489267082],[1.0792447276810697,0.3658435800158344,0.4695149553668005,-0.5746212429653554,0.9382973256004639,-0.4516472881687541,-1.9451720856904384,-1.2802703633191903,-0.7350712033679082,0.7554572204523636],[-1.935351701202655,0.8477561165010405,-1.3062324130159588,-1.3583506583586582,-2.2264460685707714,-0.8976857165057355,-1.981457465005992,0.5249354613352206,-1.1085171767938555,-0.6992397429852301],[1.0969595802468834,0.8373870926013374,-0.10664000199199856,1.3304669899214445,2.047365199492759,0.734475246377504,-0.41189331916342176,-0.19063386594428522,0.9023009968142935,0.4435375417664297],[9.27523021092946,-3.5190008175857357,4.256080952029856,3.5980662479269836,7.536153938949587,-2.252940230663248,-9.773463844380474,-1.554403715248041,-8.142454364514226,-3.173909373090045],[-2.1870044401443076,0.19239159768485303,-1.752240855797876,-1.0158041091505576,-2.677078244549271,0.30696014030112484,-2.2364853518559977,-0.3698647623857552,-2.0403061862572143,-1.0160309227407638],[0.8619434500854839,0.6443712982305461,1.238703501514642,0.7460718405452643,1.766358313072582,0.39591219082100115,2.9315426780942824,0.8663059018500175,1.5254839049129068,1.9312862188931132],[0.633559609044496,0.5344796691699661,0.759061038065345,-0.5965675856231049,1.1816207083776005,-0.1501192547448474,-0.4283200284803217,0.5220107748999616,-0.856707175099449,0.7199661795809398],[-0.36818617245718027,0.9666413627051927,-0.3989844335378012,0.2078435012308149,1.389099132191163,0.0663490458608309,0.9736806973214234,0.8159030168415361,0.15934135267901195,1.2745979858598857],[-5.245819841997295,0.3508922272094654,-3.6853606693079204,0.22386114899490842,-3.0689571218811187,0.044834788632364155,4.65870778947615,0.03259262974430029,4.360145426487431,0.12274634684058716],[0.48722511289422904,-0.29725283180825024,-0.8017133477900017,-1.7196628725802034,-0.6691584769348895,0.21480534451990205,0.10019449308024253,-1.8821734633376948,0.29606728535974447,0.24736528112480552],[9.808942580097014,0.9102307109055832,6.928495929471455,-0.3088313767179846,3.7278942892698557,-1.0234450513505224,-6.6206737507627675,1.0907588318919819,-7.384741765976106,2.006414955886275],[8.141076599993388,-2.9293017904086853,2.9696142023116634,3.4286061489443926,6.955823929715611,-2.561178757334226,-8.085507302731367,-0.9878957289076306,-6.503826277183747,-1.6199918016609134],[1.0675265794747386,0.9395950059567875,0.26265615511144713,0.25263154235373975,0.18410168298071428,0.6453636644148034,0.4125891441421514,0.29446722716298196,-1.1969866301300967,0.8592877670808082],[-7.686329649737893,2.7315475740796837,-3.2543914260603866,-2.350448503752541,-5.8607347672236525,2.2926293174432306,7.233538610313666,1.5963686233842118,6.306623138165832,1.9455989030612155],[-7.558025602127208,-1.783481656846345,-5.584148583070454,1.4351878893809173,-4.259370075066103,1.487190048090207,5.967314440788065,0.25885349673363367,5.994428769250797,-2.194359893465699],[9.647365166700327,-3.7626859586554393,3.2759898716866607,3.868540169765106,8.897006287164341,-2.15843912870043,-9.597379994763154,-1.0108172541545701,-8.689799706249488,-3.229375535063293],[-5.479936742691384,2.3251272414005895,-2.2131741520105956,-1.1196980127524836,-5.164623237061401,1.8726175923386599,4.512887014220395,1.9961993437587733,5.339835141714108,2.515739073491879],[0.48643381780253003,0.9638795660653356,0.13567348684409083,-0.852604603422995,0.9902756256699823,-0.735216867800493,0.6130264851772343,-0.9943975550182262,0.7425023519750652,-0.6369530657191214],[-7.860248917846746,-0.7682545694941808,-5.36679363932647,0.02202489974598346,-3.092226007280063,1.3754740098499694,5.10056784830068,0.06734842089322118,6.327661613303457,-1.7001225126613477],[-1.1565814019698741,-0.301408795105031,0.07875792540978746,-0.11223933392669781,-0.9445964782715882,-0.4138675113386297,0.5763677981733599,-0.22297071329616572,-0.19851160219157477,-0.11963264168426091],[-1.5839640783785616,0.8140596382652165,-0.49093774465817125,0.18129692114376833,-0.8999983363981595,0.3323925649780619,0.24860003651488985,0.869464219649402,0.09021068333583557,1.1279115415215748],[-2.87848032272261,1.5589928945516347,-1.5723225213633258,-1.2975967448527554,-2.505419004117868,1.2487561407095487,2.771505406413361,0.2299703134569015,1.8434569110190429,0.8855884345991774],[0.41268111824147957,-0.3158751151654611,1.164671564992871,0.43497583110179,1.7035210226104964,-0.5285590558846196,1.1603144326380121,-0.5088215236085588,-0.3317296541389706,0.28994871489984453],[0.7335056723820563,0.6402643129977528,0.7641137441794977,1.0802435237648886,1.7148102113752033,0.18781062065295184,1.3280342865046575,0.6958639544691319,1.3539878205117777,0.5905376633613185],[-4.307735704880279,1.114996847596279,-2.5151039035694396,-0.2983732682611367,-2.939655686462482,1.6060853840288305,3.6554487112618057,0.08545560083864553,3.7081790482590264,1.6415475937461186],[-2.0011853985430963,0.621210857709899,-1.9491565479073036,1.067888425437556,-1.6073919346598975,-0.1412989034081904,0.0770458585205948,-0.21006094906320172,-0.28137786447226404,-0.48920357047486185],[1.4841594856918345,0.7934133218926865,2.207211461961871,0.4334256318482733,1.2465351691251063,-0.442654266599894,0.43693980894116213,-0.24536235063466114,0.7853930142294646,-0.4982433150546044],[-2.4559232713097026,0.6803233729881369,-0.8896214872641656,0.40346536109557685,-0.5153620883334742,1.028824631646638,0.1668295543431406,0.11014116662081053,-0.3354086540319994,0.24013799021422108],[-5.034090809084211,-0.9834396211161679,-5.49509414215692,1.440861097835211,-2.0211278028303186,1.2963812078241177,2.27509805072753,-0.5383661937636564,4.494603705886347,-1.0715641307669757],[-9.40383720450169,2.53795912106316,-2.8580105761319943,-1.9591755153238306,-8.415652984728881,1.716732195982433,8.32366706610825,1.599009353837183,8.635590787591545,2.626941124929516],[-1.1003222497060419,-0.04199535371523815,0.35797283649267136,0.9844117121030294,0.15355682750233762,1.4317977575503293,2.9673541394708294,-0.012066619282308037,1.4406190035425508,0.19200635511049108],[-1.6177748300043826,1.2261772392025523,-1.7932071304431803,-0.028064716493867048,-1.7867476894922891,0.6589957110461601,1.689225690961769,0.5538080876729577,0.8625535950069404,1.3993954906774715],[-7.406859977526189,-1.1167031909621388,-6.269671191938428,0.8237020036586035,-2.9398794170875857,0.7698328666058357,5.313973896148487,0.2784156274415609,5.781727414687936,-0.9685386909476721],[0.3076571251903884,0.31203642862719333,-0.899362252865982,1.0265312550440884,0.7240403353126289,0.3209442651608297,0.29020251457930696,1.0255753651816937,-0.38544697077415735,-0.016450344414219126],[6.9089887206375975,0.8917014366534946,5.473880407616569,0.10835901808367067,2.4094431121122177,-1.5954536383014157,-4.243804630070028,-0.503573009386617,-4.9483848508796235,0.9290577423053721],[-2.8438116411422465,0.7698741177499346,-3.3070037426000605,-0.03263389004318335,-1.4891502059648867,0.26631133808732693,1.9933883292212733,0.04028855262354912,3.376784691371219,0.03085808794650651],[0.41608763957873607,0.8730274116127904,1.236160551617018,0.7808020976119919,0.7571473799513584,-0.519309897819763,-0.9367086824091955,1.2014002571799622,0.10167669080892901,-0.14518558763439385],[-0.17738787808714024,-0.33898590456874944,-0.0989486587378741,0.505961815010311,0.9446078393340155,-0.3871364500599166,0.6970797567861382,1.1225858155687327,0.6416616641221715,1.4191679929639092],[3.4262666890775075,-0.22707986131319172,1.1785896023276048,0.8411016121326712,1.9297151183123165,-0.19031069515602111,-1.8791748441150717,0.3441515270447488,-2.0882880036746556,-1.3511793823637879],[0.9621477649394488,1.5870745279091882,0.5182564959349221,1.3647973746129718,1.532428775506051,0.5034310571776482,2.823483443408616,0.6404362069463665,1.4526897788240503,0.9186665585483996],[4.292978935965564,-0.30461317969878454,4.918370136430066,0.03885062204474758,3.0154445848947,-1.3443665648496737,-3.2764114142226015,0.8822215372222336,-3.928921380749043,0.8276110795966026],[-6.221318276458583,-1.0917589298623862,-5.875692437183766,1.5474153459432123,-2.3676294186202145,1.8675341032128243,4.3053757250708635,0.11413987352404376,4.891852266573872,-2.0065671477150326],[-0.5964662031995382,-0.12248015619426063,0.6045672308806197,-0.9800816120365666,-0.08390933058358267,0.33294085692210995,-1.3437024370828041,-0.46817030230521095,0.654211254213984,-1.2195957139764182],[-0.21965569621486694,-0.05326621732254077,-0.6189400363619787,1.7625244676776226,0.4231834616005045,1.6561653385496,1.2082242799575984,0.5542192854715335,0.4316805918748352,-0.1381789280816656],[0.3477152630445325,0.42353440861125385,-0.9447767073018537,-0.6943082337180123,-0.005986204335356687,-0.2692295006323285,-1.236676862627611,-0.5165919757623869,0.842569797589943,-1.0238053452518099],[2.4287974062934987,-0.6090651984105655,0.5677435155270458,1.4376696477870898,1.2286602802795819,-0.9520829855275684,-1.3206146300273305,-1.227728038935887,0.1765598908433054,-0.7380453005639377],[2.3774784197844734,-0.2822635291095643,1.7100815182860123,0.7123651938176369,2.0011103209249166,-0.41199288487162244,-0.5490464144966721,0.10118658390811146,-0.40138937276910536,1.3445821676162242]]},"hiddenWeights":{"rows":3,"cols":64,"data":[[-0.03345819505416998,1.3253190101500332,0.4033403855017864,-1.0214369705957271,-0.27432029824067955,0.32587248915351,-0.24600740818551345,-1.0342580162477546,-0.7054176601123877,0.19962411234942828,-1.2868909415170744,0.7597786996432462,0.7357664516464039,0.4078547805512514,-1.0644993811070511,0.38564125563938495,0.7348547149026358,0.38545264933562456,1.159653798888834,-0.7340159659139656,-3.403304919145772,1.1789498792661706,-1.3980299072292512,0.39949458623483397,-1.101978331077924,-0.6204679755128044,0.8439635248570816,3.2800583465651614,-2.442947462361445,-0.31071664462986054,2.133065534084613,-2.293362933361215,-3.201677052425662,1.3635334942687487,-0.4941417462284034,-2.2005392081648365,0.5186626108888271,0.46414976693196813,0.2690230437106544,0.782336413223541,0.04619276454946057,0.010320913345689168,-1.03582260679984,0.859396867785182,-0.8124096272114227,-1.6596831323206676,2.771619476613496,-0.15926517015723304,0.6312789512565533,-1.9453353079480227,-0.6132294090455208,1.4146216228902508,-0.19041524148220895,-0.3297780368043783,-1.1176121011086306,-0.3154089155723961,-0.8829264056223441,0.6217802060208822,-1.5243682422405938,-0.31119848377528,-0.7352177534075766,0.034377514835135355,-0.7303533126594094,-0.24293342518554406],[-0.9188902472726032,-1.4202107229077892,0.24319247026934834,0.9041934734316596,-0.9896112856610951,-0.17553405700519664,0.5137473794892471,-1.1358896677331776,0.43684757973422084,0.8412803223680909,0.18591218788778202,0.2421835176164654,0.8805047242356988,-0.1463492898972183,0.9223142854865459,-1.1498037352973962,0.48692565293177964,-1.2184376094535085,-0.4823055556089459,-1.156140607974162,-1.7586884341333227,-0.6297123852833213,0.43557698283469176,0.1853766637443813,-1.032357766720236,1.3772855767401377,-0.22892990907471894,-1.7769456619171562,-1.2874629593621945,-0.1922363232192962,1.2496405330616671,1.0767776333985115,-0.9039412460998232,0.6173161777302003,-0.8484734974627302,0.7570269122730863,0.29612004639519895,0.21538483079689366,0.4319468740142568,0.4834097498177403,-0.08601632359068997,0.658721002051903,-0.4718399635563333,-0.02993602157547493,-0.4255325942255817,0.8445257854613386,0.988358525228942,-0.08836892136016848,0.6909808084186003,1.2506834915526772,-0.6857997788421714,-1.567218188551764,0.7978265201353872,-0.4812351581537871,-0.8472010888222851,-1.0075792610382883,0.11316667485498091,-1.5896336317284165,1.1508124909430135,-0.7414362075822867,-0.19214629792527385,-0.3478390453536159,-0.5533522737371239,-1.0301655116292012],[0.9840320253925212,0.8668103828954147,-0.015930717374406635,0.24328408849952288,-0.10635767949504173,0.6067058040883949,-0.8407583325417851,-0.6692482346579637,-0.29947720249057214,-0.9042546339921951,-1.356610689281318,-1.28984015679907,-0.816568881896167,-0.16679030417345767,-1.1251526700998795,0.7715685685069343,0.4822815233661409,-0.23713044295977465,-0.31750750945128076,-0.7399420390577854,1.1959568656942154,-0.9901609009127548,0.11531184424767274,0.6565131665603368,-0.8486239758200491,-1.720215239172458,-0.47869425620703654,1.518551469795465,0.9647666543163398,0.5312427714497048,-1.0478019452361844,-1.7614431527494758,2.288635768592173,-1.1378144992214272,-0.48710351299864624,-2.0010189106328533,-0.11035094330989008,-1.1727559752822794,-0.9028422830950598,0.419043042684614,0.6228603413228055,-1.6584073683992153,-1.046016895942183,-0.13462627027076698,-1.0332767437400427,-0.7319533169272934,-2.0557694722927593,-0.9730394824014321,-0.43403372494064846,-1.5099423150974904,-0.7148412934927239,1.3618343206908377,-0.9648844067796556,0.08356328577842329,-0.7437570449844235,0.4528415453719413,0.5307950945102214,0.9416631067156623,-1.1589792353662152,-0.7877556504700867,-0.4771657220182248,-0.6873035547980708,0.2427936615872262,-0.2461645364008189]]},"hiddenBias":{"rows":64,"cols":1,"data":[[0.6505090609576195],[-0.9921190385560732],[-0.7324874784055616],[-0.14824140888219947],[0.08760443117805694],[0.21993159197013076],[1.1141400935890318],[1.784338224996059],[0.6368703954617102],[0.20587863497284611],[0.13648354760150025],[-0.35584403054345887],[0.5937586154073349],[-1.2290866089171013],[0.6334155333523341],[-0.48584618196943735],[0.6021802738160271],[-1.4385363525323873],[-1.4044201022635778],[0.8079593569657332],[0.16007164068927363],[-0.32970308414831906],[1.8275939995039194],[0.2030472241466865],[1.3466206958995262],[-0.27898547112627714],[-1.9782999463394442],[-1.3091806805786104],[-0.8173942361715164],[2.398907878272971],[0.47629503535429996],[0.47093841515501533],[-0.42119025648098546],[0.2359927994925552],[0.24655786406336358],[0.8539382710983716],[-1.4048907412428686],[0.9027928432357011],[0.5502736821663128],[0.22361605629673273],[0.7497684585618475],[0.8678771841878238],[-0.46476600514973837],[0.09343550553900509],[-0.7267349106762907],[1.1462844225394357],[1.0835885755628778],[-0.40268048444091104],[0.4188513313034514],[0.3794685135654144],[-0.4335682048778044],[-0.35997397744574433],[1.0336538857807713],[0.8081519436938399],[1.0119896684513863],[0.11879491676584959],[1.4707457711931486],[-0.21374891516408506],[0.5348523499430807],[-1.1855101973130802],[1.5649041361301668],[-1.811838972331844],[-0.6422362835416144],[-0.46867678336334334]]},"outputBias":{"rows":3,"cols":1,"data":[[0.3744478555671819],[-0.45231169921303854],[-0.6037821848194077]]},"lr":1}