{"numInput":10,"numHidden":64,"numOutput":3,"inputWeights":{"rows":64,"cols":10,"data":[[2.291482983952333,-0.15106593464065735,1.598513401654673,1.0760340175475016,2.3477376856700567,-1.3714807074309026,-4.082037182075497,-0.031809405029329274,-2.970150376083394,-0.20592685530832244],[4.721357948421896,1.4629126341395813,3.5909270123249537,-0.30557341322959986,1.471845498339467,-0.27847267141561427,-4.078376826942904,0.7203369758034589,-5.671208936692464,1.3187495324151963],[-0.6594661741178983,0.14681372199672635,0.2226429394252576,-0.07267007542668556,-0.7484544096274659,0.053313259822790476,0.7793527277571732,0.9318651745031332,-0.5839922812561409,-0.7202642072497508],[-0.3738360419109106,-0.13597336523673656,-1.9748592017947206,0.7674260877973276,-0.2661618241709136,0.6716318282631997,1.0381754293155714,0.7393849461615511,1.4405143994650378,0.15328099435821826],[1.223680215544347,0.08590967142794691,1.4997317294769341,1.0248336626664938,0.5333103663788357,-0.732798786947702,-1.6353150734967579,0.394846020216536,-1.3727119212742058,0.2297626962657469],[0.9695195685009144,-1.2548097436008079,1.8676572587564628,0.4531020357967789,0.6743682173305121,0.26426363847077583,-1.8048776378811602,0.09012044390251929,-1.8573242998863437,-0.3860427975663539],[-2.60554345824812,-0.20613190254032152,-1.575926356388432,0.05346088746580146,-1.1772447363466017,-0.4208245368713756,2.596409272803629,-0.4684965694373806,3.0461938325585503,-1.0161893622517546],[-0.8008146726475589,0.46817352392498846,0.5493387076020724,0.38663559009963605,1.285488698737801,0.7857778790091506,0.14708129135647474,0.7283876149899232,-0.2925977280811446,0.31987849535592805],[-0.9391663478711314,0.163794436013691,-0.8639236992001805,1.2470548561971246,-0.8867762371082784,-0.5372166597627316,0.03860436542015782,-0.6082708582295486,0.5108757307729874,-0.7757928923203933],[-3.345621445377684,-0.3028309861156618,-0.8655785191871246,-1.052206317691601,-1.1305952466590976,1.0169865592061662,2.8318211120852115,0.6948529115478185,3.186549344793801,0.36035466550221773],[-3.639034802943551,-0.012210778945292024,-2.6601132986046574,0.2999893032842403,-1.0821612953997541,0.25881086605609116,3.020828125153503,-0.3890965815018354,4.3022755634102925,-0.7596333120814633],[-3.9174755936343257,0.908385331280524,0.05489665413329369,-1.8647402537064097,-3.5048649269367704,1.746971412286928,4.213831546472143,1.0941516025741576,3.629216425745126,0.8457175765928392],[-3.3045526661304416,0.17406038194638965,-0.6373177101875637,-0.48459130675047124,-3.5415055968695337,0.8701099764057514,4.0441431646216905,-0.5348596246144625,3.8935069772217883,0.5227433785863121],[-0.5670513731329311,0.08381519448308607,0.2647192163355585,-1.033216941484021,0.10266889158014243,-0.5111824061238469,-0.06876705741521881,-0.24053158431236293,0.44946629353161066,-0.6754337011901375],[-3.936012203832473,-1.0687935143922147,-3.6897025950178883,-0.5309677226507066,-1.915564238289365,0.2528953561617325,4.3811818779576,0.24701011218805247,5.200462443576264,-1.753648064874594],[3.0087906647265594,0.6515094506172004,2.3318110595023778,0.9501182656577737,1.2021858652426956,-0.8716540541887873,-2.8705834669250274,0.88458582405535,-3.7423353947282307,0.07454127955872737],[0.13563909860068343,1.33672242910283,1.2595411338095115,-0.877017405558695,1.3949257522064773,0.8061172331826517,0.12492477296270788,0.09486047160836056,0.7989439915591395,-0.6020664116062746],[0.7902881443475372,0.24359669389016994,0.1555493200438655,-0.6100613450902455,0.6943675004812854,-0.482771223156987,-2.2514293274648183,-1.4134801343117265,-0.8925380214343238,0.6073496739607869],[-2.3223871191967307,1.4402831723388778,-1.5597816102649573,-0.9929216626723655,-2.757477378711635,-0.40705818869456734,-1.8724445343831697,0.8734617865163518,-1.641066615790286,-0.09106411931456852],[0.6000798169666504,0.8975993734774429,-0.6051217131350675,1.389234345094239,1.5496724820642096,0.8496949863987106,-0.8068173492872798,-0.2120335798734064,0.49670782622949994,0.5267737750784391],[8.446446559308157,-2.6998879725910014,3.523653079357147,3.9904623151800327,6.494149963608684,-1.630980515198497,-10.124085404595633,-1.0190448067276807,-9.199056307797257,-2.0812728734764847],[-2.421037888079644,0.5466795835859097,-1.9064734094202822,-0.7971308312807197,-2.99710133368311,0.6007246130805867,-2.173332593864549,-0.16163972289067574,-2.3607294163643235,-0.6521723654226053],[1.2948546184015028,-0.18828392252726278,1.4800238491268451,0.2392636804098236,2.404600681691975,-0.2752270282644128,2.679550025970526,0.3592056560254674,2.1902099785104707,1.0789915418390563],[0.7079937744968997,0.7965371547678494,0.8984694630879034,-0.4502713058304605,1.185135203859623,0.02835742762508365,-0.1702657127479053,0.7083259163526534,-0.9059682050659111,0.9844021547655972],[-0.5716831854926163,0.8998956579888724,-0.6305345628768577,0.17068285491086063,1.2077468271292762,0.040621037440610804,0.7277799032457687,0.7511804831943683,0.024018594444945137,1.2318886181381863],[-4.332975328530288,-0.10527455300528225,-2.855765316712639,-0.08361210234903664,-2.0736288882615725,-0.41440069425819964,5.1365099553354066,-0.14849393220366397,5.240638072554378,-0.3914526532018082],[0.4480097824486984,-0.341906894255793,-0.8432671273790608,-1.728419924113624,-0.6928751840795635,0.19967939214573702,0.06154065841219446,-1.9271019700671996,0.2946144506740718,0.17644075885928948],[8.283041212486731,1.607847031045164,5.53735812946899,0.18529700227435894,2.0731450337570836,-0.2868306987603271,-7.4126009016779,1.3582134528957082,-8.8239475528086,2.7560319321638036],[7.302817631869106,-2.0781226209671555,2.232851983669601,3.8363634292409183,5.896579441398136,-1.917801459731093,-8.42889237042926,-0.43200884637421966,-7.582200301666228,-0.48856898182687064],[1.0223568263050051,0.9560612340002743,0.2169116519116569,0.259414760959323,0.1352318969129363,0.6600281272244741,0.3753855677855818,0.30302582082386137,-1.241660479285951,0.8871524461273176],[-6.894856922242549,1.8951620896934467,-2.5652384343036614,-2.7516258079585425,-4.85161467866343,1.6636394719808683,7.53850503239359,1.0480069347260146,7.3402688357703045,0.8395002473754393],[-6.280970883972199,-2.3824275637095558,-4.423693169963399,1.0121961301747981,-2.87050822760827,0.8585108040488381,6.619123902216506,0.027279347552958376,7.204269474645359,-2.8362411302480477],[8.728984940617549,-2.8262401400119703,2.46942105637523,4.318090591669757,7.734598262653566,-1.449239353322431,-9.968559076363489,-0.3962248977705147,-9.87248105408689,-1.9846554970098698],[-4.778998469330058,1.4947212032047383,-1.6194966820418684,-1.518293767064727,-4.246357704504048,1.2574396691303658,4.732793095754836,1.4456302808926633,6.297520205314212,1.4310204728980775],[-0.32093232502744434,0.5486884038084207,-0.8052973537388184,-1.0660078964005313,0.3147241440763949,-0.9304881882714705,-0.43462578742559993,-1.3682309002526074,0.2814702972300375,-0.9942942409213715],[-6.697303066792825,-1.3465288988160706,-4.318345954157979,-0.3825548948209516,-1.819429409521987,0.7788161375250686,5.669866954910628,-0.16406762202377834,7.442027802137241,-2.318019549505891],[-1.2569622190900094,-0.3665865864763629,-0.034682041402633056,-0.13630722313156024,-1.0234353341841382,-0.4399998615646479,0.4567806682874467,-0.2848887352861087,-0.24323200300019338,-0.19633133161576957],[-1.6787294026509718,-0.2208534453368067,-0.7856496901218446,-0.32792618736434515,-0.7080680281077172,-0.33996952201375347,-0.44090477962159613,0.10860190259643202,0.4925121115763458,-0.06706508744254547],[-2.235431331581159,0.8022263145940584,-1.032730224681552,-1.6711420541933268,-1.6696214134830576,0.6806080646583914,2.9611892200966503,-0.2587480500870309,2.708612592813182,-0.08564217740196528],[0.28957296873255445,-0.2318359586619589,1.0597507866786036,0.49125248826056706,1.5625487547971033,-0.4483609882543657,1.1186324552315177,-0.46901131139431407,-0.45874402426333283,0.37847152889293556],[0.7055997772455844,0.7395417204774741,0.759562807999553,1.1393489425366055,1.661706639387473,0.2643219358597082,1.3783004642072585,0.7591416210622949,1.292875819763846,0.6912297652850208],[-3.55597025749213,0.2489871135374959,-1.886394387027858,-0.7338024591059203,-1.9707053146261104,0.9487639777714498,3.874105235822951,-0.4652957048568754,4.7050668775211335,0.5406425220551333],[-1.8839494708275717,0.3115603963652883,-1.9047918067956364,0.8818916349364693,-1.412504566785107,-0.3844374700237804,-0.05518891502956545,-0.4039344980285866,-0.06750364710092226,-0.8059180232441668],[0.78717853475565,0.6987442140631587,1.4703803281758452,0.4197241784053473,0.5984681905317755,-0.40617446742749047,-0.23696341523090275,-0.4035374599369395,0.29478024198633695,-0.5729762627635491],[-2.524615720188589,0.3286087549645422,-1.0462094360253453,0.20345020954711548,-0.48991225918813514,0.7829969507632472,-0.15723823870244988,-0.13514499036115818,-0.2466445649529026,-0.11264019177994002],[-3.7847654773433757,-1.3546535410651936,-4.307780806693254,1.1507985925884778,-0.7191607220283543,0.8374969867728879,3.0727204197886286,-0.6200527309788063,5.590941364336311,-1.4805997447935095],[-8.474894682118075,1.566440051747816,-2.0469874986633587,-2.4257207972241384,-7.233538486346506,0.9837599575637697,8.685540200616126,0.9609763355027139,9.843251233664793,1.3401327578909856],[-1.4984344020162055,-0.6918992627501614,-0.2006728406819489,0.6423483183079503,-0.06067039871415243,1.0277188257024503,2.1601098344973924,-0.5077418067588398,1.4060126649819493,-0.47334856550633375],[-1.6025646803934153,0.5936465566437675,-1.9023417381143344,-0.3488528510015309,-1.59909337292146,0.2328312939213518,1.3197836380477703,0.10114392452532896,1.161599291076271,0.6760465428520405],[-6.110478381088716,-1.6772775159953053,-5.079540772343329,0.4222845263210633,-1.542495969376699,0.16667087855976512,6.012822367742573,0.07506192824581323,6.991047087710025,-1.5727124768568774],[-0.2806683323107342,-0.06247580840695135,-1.596703558655746,0.8394923330527655,0.25207143516812786,0.13417311566443665,-0.5078014561147745,0.6989518899747948,-0.6853065817827777,-0.36910252311283354],[5.611168653347733,1.3864915517691805,4.265850274755023,0.4713654571130826,1.028767273322227,-1.0407420633644437,-4.995169489606316,-0.34509934063805314,-6.132142070754206,1.4674660085166633],[-2.231629710942104,0.34143205739755833,-2.7675860976014777,-0.28985488698502476,-0.7852474923879954,-0.11580251547497632,2.260171374533379,-0.17732309287343043,4.031060809377007,-0.47318943918762374],[0.23426883731513964,0.9992179008799037,1.0738203808847546,0.8543800409250509,0.5466611554553392,-0.40778604626977333,-1.0196744334257895,1.2685054863441199,-0.09422486697598229,0.0056697385368516115],[-0.7367066586715286,-0.5122442352727044,-0.7412421365473986,0.3960304681008891,0.4400805284265612,-0.4608810329709313,0.004018034292511651,0.9622904121085494,0.2545804032797467,1.3368320830981426],[2.740708640439669,0.05671076117381665,0.5267975117768064,1.0166001163655114,1.1901798241401451,0.09667849747585626,-2.3198859935262557,0.45930886819163147,-2.743054289929794,-0.9888381296741016],[1.1278461417755337,1.2790704635738357,0.6129601598073309,1.1769971017104706,1.7735110759420798,0.25468170539839585,2.734427935895779,0.4531077633478912,1.7026510327879325,0.6032334657108696],[3.133645092078892,0.025302982331551187,3.811242985836024,0.2972630013676591,1.811681829381987,-0.9311302823196173,-4.034447607099332,0.948256530576312,-4.941741338577834,1.1975259879651297],[-5.008838427486131,-1.5681559721681908,-4.751404508911832,1.1989426218988128,-1.0734614443398074,1.3376530570398995,4.99338467787899,-0.043265334597428116,6.002952801739287,-2.521709602621488],[-0.7192366358132033,-0.19031221603981013,0.464697295491666,-1.008286840988549,-0.1843150417470638,0.3052146454441019,-1.4930616042978861,-0.532531028808469,0.5908336161186758,-1.2916632031402078],[-0.2648738346190554,-0.0953751052676373,-0.6810377297701302,1.7322510458310088,0.38878946593198993,1.6258665202570255,1.1213835648262278,0.5258495806028585,0.408127941470558,-0.16393236547002366],[0.30268471016257886,0.3863339967354868,-0.9976112725026153,-0.7095146769235353,-0.03922905754308708,-0.2866045638742763,-1.296228549759757,-0.5499304818359007,0.8258466761255169,-1.0668354576785988],[2.913276475065014,-0.05202957894687424,1.1956752761069243,1.726456202141952,1.551038340387955,-0.624626509834194,-0.49745391242316733,-0.7860990994263959,0.31752033708539706,-0.18092505194458383],[1.5872296253807971,-0.3609329232176749,0.8794034350339952,0.7104011220586197,1.257268254717591,-0.3516341216113839,-1.2970366182149584,-0.05554816218897132,-0.9723209050780085,1.2936158913182974]]},"hiddenWeights":{"rows":3,"cols":64,"data":[[-0.045443040870827574,1.3001137995336673,0.423202315352488,-1.0209348354658905,-0.27889765085005247,0.331401139503654,-0.20960449775487391,-1.015736274662519,-0.6644627529521676,0.2344162986755444,-1.2524271186953153,0.795847471928789,0.7748120146022481,0.41465708168609444,-1.0249437865958828,0.37117687786285336,0.706821581881055,0.38797910843924804,1.2654000507819576,-0.7248243007970852,-3.3913060366358128,1.2883486977082637,-1.4447440864492147,0.40406597057876853,-1.0839197238500056,-0.5779683073165882,0.8460883567301989,3.24207301618722,-2.443851593294564,-0.28962163552799214,2.1542754274516978,-2.242127221100019,-3.2043464613568573,1.3836510937268143,-0.4892815397286845,-2.152863590811821,0.5369708542057648,0.4982653627153697,0.30653757382210683,0.7479482618103966,0.0383800558076606,0.05674723289541525,-0.9642375221256909,0.8301979980019747,-0.7428095600606918,-1.6140866936601537,2.8022253545428324,-0.13784849137352456,0.6819903794462534,-1.8963561748045448,-0.579464218109675,1.388758602515518,-0.1551296135246023,-0.31931441543469696,-1.1158016092000929,-0.32290707188043427,-0.8798047302429935,0.5989884610264669,-1.475240556676333,-0.30829794686706896,-0.7146567485337257,0.03615806375834771,-0.7945440247487954,-0.25417478037557883],[-0.927484597998519,-1.4334596733965497,0.2250515104601192,0.8756470438662236,-1.0007463761988664,-0.18707246860213092,0.4955091303832646,-1.164921016274356,0.40622127216869963,0.8195551357309532,0.1664111662095129,0.21278238980377767,0.850855702493439,-0.1485789699819254,0.906118562658604,-1.1587317349219082,0.47757488927083147,-1.2208056004853267,-0.5259042671976274,-1.1794508881625991,-1.758100504345421,-0.6744385105910852,0.4375390669835851,0.1628512898189961,-1.061445901070221,1.3601611261442104,-0.23042421464290802,-1.7944901645083715,-1.28667508268705,-0.22314717130440623,1.21751819765547,1.0621566143854464,-0.9034653432463371,0.5856967211478934,-0.851143110754663,0.7422166108145559,0.28592513004438463,0.1986652673061717,0.41106064740408754,0.47820252109575156,-0.1061522140186404,0.6337717502961574,-0.499113424603813,-0.02726268599112242,-0.45433247030994417,0.8247352403538216,0.956402893452409,-0.09000989292166449,0.6600461544885838,1.2355073994697592,-0.7041147643008213,-1.5818743457047664,0.778435058475596,-0.505552217982974,-0.8726966226918481,-1.0196724228084342,0.09136677111204633,-1.6001421544409282,1.1338258552541527,-0.7433159886872245,-0.22185681204042487,-0.34903677878090106,-0.5465922121714571,-1.031369773209441],[0.9424750981530845,0.8097245212543549,-0.02091395811655478,0.23081845890052557,-0.1562610649596995,0.5583842802926721,-0.8638851773366695,-0.7256241931918245,-0.2958125750615161,-0.9244514969625797,-1.3568210652324173,-1.3043752802620021,-0.8369278387412403,-0.1808554896323674,-1.1274576887106864,0.7169066769564089,0.42327051168573776,-0.23704522661997013,-0.31730230966887946,-0.794935347122338,1.1419499921134646,-0.990074135512731,0.057966008777782255,0.5985437045000265,-0.9026672154858905,-1.7323853921273318,-0.47911161709439504,1.4609006176194483,0.9235525743676947,0.47468504240058385,-1.0583725931948353,-1.7619978954573559,2.2408832131281646,-1.1419480552101064,-0.48926711126331773,-2.0014101096591546,-0.10930513516530965,-1.1696160109760307,-0.9323416243400992,0.35946115038865034,0.5653790005535542,-1.6857333636272263,-1.04527647408429,-0.19639547599954757,-1.031761524906066,-0.7318727588761452,-2.0710847256324114,-1.023749952417939,-0.4215799318573442,-1.509544984336533,-0.7123125614142066,1.3040510265953733,-0.9816766785673328,0.02766810275770426,-0.7498077719017247,0.41395544006341295,0.4734526912752284,0.8849281608376061,-1.1598201565778352,-0.7881721516640788,-0.5330096102664386,-0.687525817454539,0.18202717704416926,-0.30307029425335164]]},"hiddenBias":{"rows":64,"cols":1,"data":[[1.2817762835496584],[-0.39823366777366204],[-0.9344965709153101],[0.26888343403859577],[0.12652917149294107],[0.695538005200661],[0.5231503398416991],[1.7168290213203057],[0.6960957982295205],[-0.5509954915628744],[-0.3956033926529734],[-1.4556541005994106],[-0.24927140860157615],[-1.2622842442989484],[0.025379260061492968],[-0.22219802285960402],[0.7888079481856175],[-1.6245405615368713],[-0.44771597679969916],[0.8468850428104158],[1.128371795115839],[0.24238073355340645],[0.46819816858950747],[0.6460118937233545],[1.1881698328733965],[-0.9055795741599771],[-2.0182500436385284],[-0.28484531808957425],[0.19037145590632187],[2.407817573912641],[-0.5236963297069657],[-0.4114284050999008],[0.6924115790780679],[-0.7771946922721755],[-0.5809195753000415],[-0.0036588713243980685],[-1.5022722201543695],[-0.6143763628296346],[-0.38525672242077535],[0.3548257633450728],[0.9136915488446293],[-0.21628082965955017],[-0.9755002991716424],[-0.13633613048172802],[-1.3250261461013375],[0.6432421973103354],[-0.07743561746926998],[-1.4978128788894907],[-0.5191621298712022],[-0.4342139029648],[-1.1312176733554749],[0.3394317320342352],[0.458144853067667],[0.9745177248245269],[0.5626845485130171],[0.44426959683134054],[0.9679796814379024],[0.21898327944106166],[-0.14767924009279654],[-1.3008933698031335],[1.4681934464727115],[-1.868758396777047],[0.32160079367689054],[-0.6854803887270536]]},"outputBias":{"rows":3,"cols":1,"data":[[0.39636286952336663],[-0.4836941139564318],[-0.6611041324845943]]},"lr":1}